<?xml version="1.0"?>
<opencv_storage>
<cascade>
  <stageType>BOOST</stageType>
  <featureType>HAAR</featureType>
  <height>32</height>
  <width>32</width>
  <stageParams>
    <boostType>GAB</boostType>
    <minHitRate>9.9500000476837158e-01</minHitRate>
    <maxFalseAlarm>5.0000000000000000e-01</maxFalseAlarm>
    <weightTrimRate>9.4999998807907104e-01</weightTrimRate>
    <maxDepth>1</maxDepth>
    <maxWeakCount>100</maxWeakCount></stageParams>
  <featureParams>
    <maxCatCount>0</maxCatCount>
    <featSize>1</featSize>
    <mode>BASIC</mode></featureParams>
  <stageNum>7</stageNum>
  <stages>
    <!-- stage 0 -->
    <_>
      <maxWeakCount>2</maxWeakCount>
      <stageThreshold>0.</stageThreshold>
      <weakClassifiers>
        <_>
          <internalNodes>
            0 -1 3 6.3938105106353760e-01</internalNodes>
          <leafValues>
            -8.9933520555496216e-01 1.</leafValues></_>
        <_>
          <internalNodes>
            0 -1 10 -2.9539507627487183e-01</internalNodes>
          <leafValues>
            9.9377346038818359e-01 -1.</leafValues></_></weakClassifiers></_>
    <!-- stage 1 -->
    <_>
      <maxWeakCount>3</maxWeakCount>
      <stageThreshold>-6.6357678174972534e-01</stageThreshold>
      <weakClassifiers>
        <_>
          <internalNodes>
            0 -1 8 -1.7104368656873703e-02</internalNodes>
          <leafValues>
            8.4375000000000000e-01 -9.0430623292922974e-01</leafValues></_>
        <_>
          <internalNodes>
            0 -1 13 7.2330117225646973e-02</internalNodes>
          <leafValues>
            -7.5299453735351563e-01 9.9109828472137451e-01</leafValues></_>
        <_>
          <internalNodes>
            0 -1 20 1.1530297994613647e-01</internalNodes>
          <leafValues>
            -7.1143120527267456e-01 9.9372398853302002e-01</leafValues></_></weakClassifiers></_>
    <!-- stage 2 -->
    <_>
      <maxWeakCount>4</maxWeakCount>
      <stageThreshold>-1.9560332298278809e+00</stageThreshold>
      <weakClassifiers>
        <_>
          <internalNodes>
            0 -1 7 1.3218242675065994e-02</internalNodes>
          <leafValues>
            -9.1456311941146851e-01 6.4556962251663208e-01</leafValues></_>
        <_>
          <internalNodes>
            0 -1 21 -1.0965524613857269e-01</internalNodes>
          <leafValues>
            1. -7.0222902297973633e-01</leafValues></_>
        <_>
          <internalNodes>
            0 -1 15 1.1371708475053310e-02</internalNodes>
          <leafValues>
            -7.6377058029174805e-01 9.3496084213256836e-01</leafValues></_>
        <_>
          <internalNodes>
            0 -1 0 -6.3889357261359692e-04</internalNodes>
          <leafValues>
            -1. 4.2452943325042725e-01</leafValues></_></weakClassifiers></_>
    <!-- stage 3 -->
    <_>
      <maxWeakCount>4</maxWeakCount>
      <stageThreshold>-1.8146508932113647e+00</stageThreshold>
      <weakClassifiers>
        <_>
          <internalNodes>
            0 -1 1 1.2195775285363197e-02</internalNodes>
          <leafValues>
            -9.1245138645172119e-01 5.8024692535400391e-01</leafValues></_>
        <_>
          <internalNodes>
            0 -1 18 -8.2328155636787415e-02</internalNodes>
          <leafValues>
            8.9015364646911621e-01 -7.0809251070022583e-01</leafValues></_>
        <_>
          <internalNodes>
            0 -1 19 -1.8749612569808960e-01</internalNodes>
          <leafValues>
            9.4526582956314087e-01 -6.6182881593704224e-01</leafValues></_>
        <_>
          <internalNodes>
            0 -1 2 2.0697270520031452e-03</internalNodes>
          <leafValues>
            4.6772184967994690e-01 -1.</leafValues></_></weakClassifiers></_>
    <!-- stage 4 -->
    <_>
      <maxWeakCount>4</maxWeakCount>
      <stageThreshold>-1.8599661588668823e+00</stageThreshold>
      <weakClassifiers>
        <_>
          <internalNodes>
            0 -1 4 1.4423963613808155e-02</internalNodes>
          <leafValues>
            -9.1270613670349121e-01 6.4102566242218018e-01</leafValues></_>
        <_>
          <internalNodes>
            0 -1 16 1.2913401424884796e-01</internalNodes>
          <leafValues>
            -7.0301795005798340e-01 9.3575191497802734e-01</leafValues></_>
        <_>
          <internalNodes>
            0 -1 14 9.2033639550209045e-02</internalNodes>
          <leafValues>
            -7.1443581581115723e-01 9.1160577535629272e-01</leafValues></_>
        <_>
          <internalNodes>
            0 -1 5 -7.1450939867645502e-04</internalNodes>
          <leafValues>
            -1. 4.7019377350807190e-01</leafValues></_></weakClassifiers></_>
    <!-- stage 5 -->
    <_>
      <maxWeakCount>3</maxWeakCount>
      <stageThreshold>-1.2028475999832153e+00</stageThreshold>
      <weakClassifiers>
        <_>
          <internalNodes>
            0 -1 11 3.3128798007965088e-01</internalNodes>
          <leafValues>
            -8.8679248094558716e-01 1.</leafValues></_>
        <_>
          <internalNodes>
            0 -1 9 -8.6849182844161987e-02</internalNodes>
          <leafValues>
            9.7372645139694214e-01 -8.9890170097351074e-01</leafValues></_>
        <_>
          <internalNodes>
            0 -1 6 1.5940087614580989e-03</internalNodes>
          <leafValues>
            5.8284658193588257e-01 -9.8635727167129517e-01</leafValues></_></weakClassifiers></_>
    <!-- stage 6 -->
    <_>
      <maxWeakCount>2</maxWeakCount>
      <stageThreshold>0.</stageThreshold>
      <weakClassifiers>
        <_>
          <internalNodes>
            0 -1 17 8.9831545948982239e-02</internalNodes>
          <leafValues>
            -8.9933520555496216e-01 1.</leafValues></_>
        <_>
          <internalNodes>
            0 -1 12 -1.7028771340847015e-02</internalNodes>
          <leafValues>
            9.2197000980377197e-01 -1.</leafValues></_></weakClassifiers></_></stages>
  <features>
    <_>
      <rects>
        <_>
          0 0 1 18 -1.</_>
        <_>
          0 6 1 6 3.</_></rects>
      <tilted>0</tilted></_>
    <_>
      <rects>
        <_>
          0 0 3 23 -1.</_>
        <_>
          1 0 1 23 3.</_></rects>
      <tilted>0</tilted></_>
    <_>
      <rects>
        <_>
          0 0 30 1 -1.</_>
        <_>
          10 0 10 1 3.</_></rects>
      <tilted>0</tilted></_>
    <_>
      <rects>
        <_>
          0 1 28 30 -1.</_>
        <_>
          0 11 28 10 3.</_></rects>
      <tilted>0</tilted></_>
    <_>
      <rects>
        <_>
          0 3 2 29 -1.</_>
        <_>
          1 3 1 29 2.</_></rects>
      <tilted>0</tilted></_>
    <_>
      <rects>
        <_>
          0 6 1 20 -1.</_>
        <_>
          0 16 1 10 2.</_></rects>
      <tilted>0</tilted></_>
    <_>
      <rects>
        <_>
          0 12 2 18 -1.</_>
        <_>
          0 18 2 6 3.</_></rects>
      <tilted>0</tilted></_>
    <_>
      <rects>
        <_>
          1 0 28 2 -1.</_>
        <_>
          1 1 28 1 2.</_></rects>
      <tilted>0</tilted></_>
    <_>
      <rects>
        <_>
          2 9 6 11 -1.</_>
        <_>
          4 9 2 11 3.</_></rects>
      <tilted>0</tilted></_>
    <_>
      <rects>
        <_>
          6 2 24 9 -1.</_>
        <_>
          14 2 8 9 3.</_></rects>
      <tilted>0</tilted></_>
    <_>
      <rects>
        <_>
          7 0 9 30 -1.</_>
        <_>
          7 10 9 10 3.</_></rects>
      <tilted>0</tilted></_>
    <_>
      <rects>
        <_>
          7 0 19 18 -1.</_>
        <_>
          7 9 19 9 2.</_></rects>
      <tilted>0</tilted></_>
    <_>
      <rects>
        <_>
          8 4 14 8 -1.</_>
        <_>
          15 4 7 8 2.</_></rects>
      <tilted>0</tilted></_>
    <_>
      <rects>
        <_>
          11 4 18 8 -1.</_>
        <_>
          17 4 6 8 3.</_></rects>
      <tilted>0</tilted></_>
    <_>
      <rects>
        <_>
          11 17 21 10 -1.</_>
        <_>
          18 17 7 10 3.</_></rects>
      <tilted>0</tilted></_>
    <_>
      <rects>
        <_>
          12 23 10 3 -1.</_>
        <_>
          17 23 5 3 2.</_></rects>
      <tilted>0</tilted></_>
    <_>
      <rects>
        <_>
          16 16 12 16 -1.</_>
        <_>
          16 24 12 8 2.</_></rects>
      <tilted>0</tilted></_>
    <_>
      <rects>
        <_>
          18 0 7 16 -1.</_>
        <_>
          18 8 7 8 2.</_></rects>
      <tilted>0</tilted></_>
    <_>
      <rects>
        <_>
          18 17 14 9 -1.</_>
        <_>
          25 17 7 9 2.</_></rects>
      <tilted>0</tilted></_>
    <_>
      <rects>
        <_>
          19 3 13 24 -1.</_>
        <_>
          19 11 13 8 3.</_></rects>
      <tilted>0</tilted></_>
    <_>
      <rects>
        <_>
          19 8 12 18 -1.</_>
        <_>
          25 8 6 18 2.</_></rects>
      <tilted>0</tilted></_>
    <_>
      <rects>
        <_>
          23 4 5 24 -1.</_>
        <_>
          23 12 5 8 3.</_></rects>
      <tilted>0</tilted></_></features></cascade>
</opencv_storage>
